0.0018764238 -0.0021477619 -8.736441E-4 -2.4032436E-4 0.0025638307 -9.3910564E-4 -0.0028262923 0.0015587322 -0.0015266081 -4.286323E-4 -0.001752872 1.1739545E-37 -5.747912E-4 1.3328417E-6 -2.0916802E-4 0.0010319258 -0.0014436762 -0.0024637084 8.343349E-4 0.0011090767 5.8130664E-4 -0.0010257148 -8.944269E-4 1.5830001E-4 1.4622818E-4 8.029525E-4 3.449994E-20 -1.8979757E-4 -0.0010904545 4.4168622E-4 0.0010211822 4.6820403E-4 3.3392437E-4 4.8502616E-4 0.0018352413 0.002060189 0.0021116983 3.6318932E-5 -1.7093372E-14 0.0018530779 -2.6793E-4 -0.0011542755 2.1662534E-9 8.035307E-5 9.115935E-4 1.1026035E-37 -1.3552999E-5 -9.1703696E-4 3.064828E-5 -0.0015445455 0.0014730195 1.1431933E-4 -5.6886446E-4 -2.4869322E-4 -0.0013082905 4.769375E-4 -7.2645606E-4 -2.5826044E-4 -4.823847E-4 0.0011874412 1.0491183E-4 -0.002445996 5.4932694E-4 1.0710067E-37 2.9765244E-5 0.001725106 -7.11017E-4 3.0398348E-4 -6.063113E-4 8.186335E-4 -5.8667094E-5 0.0013784191 -0.0015268561 0.001195964 5.0720084E-4 6.3645665E-4 0.0016135402 -0.0019077973 3.7391632E-4 5.5427913E-4 -6.7254377E-4 0.001917847 6.8784424E-4 1.1572323E-37 -0.0047315755 -0.0027772973 -2.4821988E-5 -9.5223484E-4 0.0018155356 -5.2866805E-4 -3.155938E-4 -0.0015441815 -3.7040972E-4 7.5113884E-4 9.599334E-4 -7.3734217E-4 0.0012753084 0.002793806 0.0014677979 -0.0016316801