-5.418052E-7 0.0021014335 -7.1922847E-4 1.38991745E-5 9.779918E-4 8.4810006E-4 1.3042083E-4 3.3378822E-4 2.352505E-4 0.0010713348 -6.653805E-6 -4.3981237E-4 0.001526916 7.251443E-4 4.198763E-5 -8.7281404E-4 1.3181928E-4 -1.9712735E-4 0.0014982342 -1.5455779E-11 -0.0012196321 -0.0010361562 -0.0012109684 -1.6903563E-4 -8.418072E-4 -3.622253E-4 9.686507E-4 -0.0013313765 -0.0019724178 5.2241812E-5 0.0018385513 -7.5894763E-4 -0.0011805084 -0.005312284 -0.0011627184 -0.0015475013 -4.6861576E-5 1.7311928E-4 5.5909896E-4 1.3957702E-5 1.6598697E-4 -2.6217703E-4 -1.336206E-4 0.0013462766 -2.0047154E-4 8.146807E-4 0.0016088275 0.0012789709 -3.6604027E-4 -0.0014590169 0.0011384441 1.1336909E-37 -3.188282E-4 -2.645884E-4 0.0017235328 5.8356975E-4 3.1104474E-4 6.6728663E-4 1.0813966E-4 -9.7419525E-4 7.576261E-4 -7.605083E-5 -0.001897953 6.215395E-4 0.0010543648 1.0727179E-37 -7.599576E-4 1.7201266E-4 -0.0028907824 3.6151655E-4 1.9181916E-4 -2.2340036E-4 1.6252851E-4 1.1204676E-37 0.0011172394 -4.5315496E-4 0.0011881368 1.02973136E-4 1.2752748E-4 -7.917132E-4 -0.0020480587 3.1049567E-4 5.489667E-4 -0.0018714401 -5.2883395E-4 -5.302578E-4 -7.748245E-4 -1.9665773E-4 -3.6607104E-5 -5.788025E-4 2.587049E-4 -7.1290554E-4 6.271512E-4 -4.4923887E-4 -8.2433876E-4 -0.0014243704 3.3328042E-4 -0.0027470894 -4.6751165E-4 0.0016525395 7.31377E-4 4.2073807E-4 -2.7107965E-4 -0.0019159986 5.957467E-4 -3.3798176E-4 2.9312428E-13 8.4094965E-5 -3.85118E-4 9.7498036E-4 -9.867836E-5 -0.0013023665 -3.9473764E-4 3.820904E-4 0.0039523714 -5.249411E-18 1.5121308E-4 3.080897E-18 -3.7016542E-4 6.500608E-4 2.0185934E-35 -0.0011782437 1.7470208E-13 7.22745E-4 5.0037727E-4 8.217426E-5 -8.2246785E-4 -0.002237544 1.3968791E-5 0.0013218649 2.960628E-4 -1.6687505E-26 -2.2390025E-4 -0.0019176436 1.1632344E-37 6.1897485E-4 -1.2628013E-7 1.240028E-4 -4.4581768E-4 -3.6874122E-4 -0.0021053562 -4.5361117E-4 -1.7588794E-4 -0.002433169 9.966018E-4 -0.001518598 -0.0025161265 -6.105354E-5 1.4431158E-5 0.0020806775 4.5575097E-4 0.0017409482 9.55154E-4 -0.001375116 -5.7223765E-4 5.6399056E-4 0.0012161109 3.111674E-4 6.971691E-4 5.3024596E-6 -0.0017262215 -4.413235E-5 -0.001057032 3.4752785E-4 -5.214222E-4 -9.298476E-5 9.820112E-4 0.0015088043 6.2376866E-4 -7.217412E-5 -5.3026393E-4 9.457354E-5 1.080322E-37 -5.328367E-4 0.0013223337 -8.207529E-4 -3.1144096E-5 1.670087E-5 -0.0011534202 -3.7930556E-10 0.0013956599 -0.0012703079 -1.787163E-4 5.694616E-5 -9.4133057E-4 4.3817688E-4 -9.628346E-5 0.0013868344 0.004274653 -5.8921904E-4 0.0011398172 0.001463472 7.0259755E-4 0.0039545824 0.0014752235 7.408081E-4 -8.010749E-4 2.6318553E-11 -0.0011509727 0.0015398072 -0.0012598467 -4.6340923E-5 9.4422634E-4 0.0025219985 6.520129E-4 -0.0012136726 -0.0033088988 -0.0030953467 -2.4087403E-4 2.541747E-4 -0.003588691 -0.0014284351 4.359398E-5 -3.576518E-4 -0.0019868582 -9.5939054E-4 4.7273416E-4 1.13790535E-4 -4.90799E-4 -3.9722765E-4 0.0014818516 0.0040269457 0.0012408781 0.001058508 1.5088829E-4 0.002090923 5.9710655E-17 -3.5279596E-4 -5.802614E-4 5.560561E-16 7.034092E-4 -0.0012961342 6.0070644E-4 0.001391272 -0.0011496146 -0.0035321123 -0.0037961027 -4.6818895E-4 0.0019176034 -5.39063E-4 -1.800827E-4 -5.0881004E-5 8.6094387E-4 0.0016232845 -6.574004E-4 -1.4755221E-4 -4.3357786E-4 1.6144768E-4 5.153416E-4 6.07845E-4 -1.1238229E-20 4.7868828E-4 -8.29709E-5 0.0018402447 0.0016254947 -2.9051022E-4 0.0010996097 -6.011856E-4 -2.2367822E-6 1.0856599E-37 -0.0012070907 -4.8076516E-5 -8.244205E-4 3.4179047E-4 -0.002151203 0.001325138 -1.6562783E-4 -3.3183754E-4 -0.001092097 -0.0016369837 0.0011028675 4.5972923E-4 -2.6700448E-4 -0.0063435906 -3.3238142E-17 -0.0022432222 2.4046865E-4 6.740979E-4 8.544924E-4 -0.0027267903 -0.001520075 -0.0010656824 0.0012184241 1.6545759E-4 -0.002441649 5.3553126E-4 0.0015837038 -9.984664E-5 -0.0013474668 -3.645756E-4 -5.4652017E-4 6.727451E-5 5.2242114E-5 -0.0014388756 -0.0017925814 0.0010469897 0.002089707 9.974431E-4 -0.0019788723 7.3035766E-4